digraph Tree {
node [shape=box] ;
0 [label="age_buckets_5.[75,84) <= 0.5\ngini = 0.5\nsamples = 39060\nvalue = [38355, 39480]"] ;
1 [label="age_buckets_4.[65,74) <= 0.5\ngini = 0.473\nsamples = 35317\nvalue = [34930, 21672]"] ;
0 -> 1 [labeldistance=2.5, labelangle=45, headlabel="True"] ;
2 [label="age_buckets_3.[54,65) <= 0.5\ngini = 0.409\nsamples = 31680\nvalue = [31454, 12656]"] ;
1 -> 2 ;
3 [label="age_buckets_2.[45,54) <= 0.5\ngini = 0.27\nsamples = 25499\nvalue = [25412, 4872]"] ;
2 -> 3 ;
4 [label="gini = 0.139\nsamples = 19963\nvalue = [19934, 1624]"] ;
3 -> 4 ;
5 [label="gini = 0.467\nsamples = 5536\nvalue = [5478, 3248]"] ;
3 -> 5 ;
6 [label="heart_disease_0 <= 0.5\ngini = 0.492\nsamples = 6181\nvalue = [6042, 7784]"] ;
2 -> 6 ;
7 [label="gini = 0.314\nsamples = 423\nvalue = [394, 1624]"] ;
6 -> 7 ;
8 [label="gini = 0.499\nsamples = 5758\nvalue = [5648, 6160]"] ;
6 -> 8 ;
9 [label="heart_disease_1 <= 0.5\ngini = 0.402\nsamples = 3637\nvalue = [3476, 9016]"] ;
1 -> 9 ;
10 [label="glucose_bucket_3.[200,) <= 0.5\ngini = 0.433\nsamples = 3151\nvalue = [3034, 6552]"] ;
9 -> 10 ;
11 [label="gini = 0.451\nsamples = 2670\nvalue = [2582, 4928]"] ;
10 -> 11 ;
12 [label="gini = 0.341\nsamples = 481\nvalue = [452, 1624]"] ;
10 -> 12 ;
13 [label="smoking_status_smokes <= 0.5\ngini = 0.258\nsamples = 486\nvalue = [442, 2464]"] ;
9 -> 13 ;
14 [label="gini = 0.29\nsamples = 388\nvalue = [358, 1680]"] ;
13 -> 14 ;
15 [label="gini = 0.175\nsamples = 98\nvalue = [84, 784]"] ;
13 -> 15 ;
16 [label="glucose_bucket_1.[80,100) <= 0.5\ngini = 0.271\nsamples = 3743\nvalue = [3425, 17808]"] ;
0 -> 16 [labeldistance=2.5, labelangle=-45, headlabel="False"] ;
17 [label="heart_disease_1 <= 0.5\ngini = 0.252\nsamples = 2660\nvalue = [2412, 13888]"] ;
16 -> 17 ;
18 [label="smoking_status_smokes <= 0.5\ngini = 0.27\nsamples = 2113\nvalue = [1933, 10080]"] ;
17 -> 18 ;
19 [label="gini = 0.263\nsamples = 1917\nvalue = [1748, 9464]"] ;
18 -> 19 ;
20 [label="gini = 0.355\nsamples = 196\nvalue = [185, 616]"] ;
18 -> 20 ;
21 [label="work_type_Private <= 0.5\ngini = 0.198\nsamples = 547\nvalue = [479, 3808]"] ;
17 -> 21 ;
22 [label="gini = 0.238\nsamples = 269\nvalue = [242, 1512]"] ;
21 -> 22 ;
23 [label="gini = 0.17\nsamples = 278\nvalue = [237, 2296]"] ;
21 -> 23 ;
24 [label="hypertension_0 <= 0.5\ngini = 0.326\nsamples = 1083\nvalue = [1013, 3920]"] ;
16 -> 24 ;
25 [label="smoking_status_never smoked <= 0.5\ngini = 0.226\nsamples = 234\nvalue = [209, 1400]"] ;
24 -> 25 ;
26 [label="gini = 0.179\nsamples = 136\nvalue = [117, 1064]"] ;
25 -> 26 ;
27 [label="gini = 0.337\nsamples = 98\nvalue = [92, 336]"] ;
25 -> 27 ;
28 [label="smoking_status_smokes <= 0.5\ngini = 0.367\nsamples = 849\nvalue = [804, 2520]"] ;
24 -> 28 ;
29 [label="gini = 0.354\nsamples = 778\nvalue = [734, 2464]"] ;
28 -> 29 ;
30 [label="gini = 0.494\nsamples = 71\nvalue = [70, 56]"] ;
28 -> 30 ;
}