digraph Tree {
node [shape=box] ;
0 [label="age_buckets_5.[75,84) <= 0.5\ngini = 0.5\nsamples = 39060\nvalue = [38368, 38752]"] ;
1 [label="age_buckets_4.[65,74) <= 0.5\ngini = 0.471\nsamples = 35328\nvalue = [34947, 21336]"] ;
0 -> 1 [labeldistance=2.5, labelangle=45, headlabel="True"] ;
2 [label="age_buckets_3.[54,65) <= 0.5\ngini = 0.407\nsamples = 31698\nvalue = [31475, 12488]"] ;
1 -> 2 ;
3 [label="age_buckets_2.[45,54) <= 0.5\ngini = 0.278\nsamples = 25512\nvalue = [25421, 5096]"] ;
2 -> 3 ;
4 [label="gini = 0.159\nsamples = 19986\nvalue = [19952, 1904]"] ;
3 -> 4 ;
5 [label="gini = 0.465\nsamples = 5526\nvalue = [5469, 3192]"] ;
3 -> 5 ;
6 [label="heart_disease_0 <= 0.5\ngini = 0.495\nsamples = 6186\nvalue = [6054, 7392]"] ;
2 -> 6 ;
7 [label="gini = 0.33\nsamples = 426\nvalue = [399, 1512]"] ;
6 -> 7 ;
8 [label="gini = 0.5\nsamples = 5760\nvalue = [5655, 5880]"] ;
6 -> 8 ;
9 [label="heart_disease_1 <= 0.5\ngini = 0.405\nsamples = 3630\nvalue = [3472, 8848]"] ;
1 -> 9 ;
10 [label="glucose_bucket_3.[200,) <= 0.5\ngini = 0.442\nsamples = 3136\nvalue = [3026, 6160]"] ;
9 -> 10 ;
11 [label="gini = 0.462\nsamples = 2665\nvalue = [2584, 4536]"] ;
10 -> 11 ;
12 [label="gini = 0.336\nsamples = 471\nvalue = [442, 1624]"] ;
10 -> 12 ;
13 [label="smoking_status_smokes <= 0.5\ngini = 0.244\nsamples = 494\nvalue = [446, 2688]"] ;
9 -> 13 ;
14 [label="gini = 0.277\nsamples = 389\nvalue = [357, 1792]"] ;
13 -> 14 ;
15 [label="gini = 0.164\nsamples = 105\nvalue = [89, 896]"] ;
13 -> 15 ;
16 [label="glucose_bucket_1.[80,100) <= 0.5\ngini = 0.274\nsamples = 3732\nvalue = [3421, 17416]"] ;
0 -> 16 [labeldistance=2.5, labelangle=-45, headlabel="False"] ;
17 [label="heart_disease_1 <= 0.5\ngini = 0.254\nsamples = 2663\nvalue = [2417, 13776]"] ;
16 -> 17 ;
18 [label="smoking_status_smokes <= 0.5\ngini = 0.272\nsamples = 2118\nvalue = [1939, 10024]"] ;
17 -> 18 ;
19 [label="gini = 0.264\nsamples = 1924\nvalue = [1755, 9464]"] ;
18 -> 19 ;
20 [label="gini = 0.372\nsamples = 194\nvalue = [184, 560]"] ;
18 -> 20 ;
21 [label="smoking_status_formerly smoked <= 0.5\ngini = 0.2\nsamples = 545\nvalue = [478, 3752]"] ;
17 -> 21 ;
22 [label="gini = 0.182\nsamples = 365\nvalue = [315, 2800]"] ;
21 -> 22 ;
23 [label="gini = 0.25\nsamples = 180\nvalue = [163, 952]"] ;
21 -> 23 ;
24 [label="hypertension_0 <= 0.5\ngini = 0.339\nsamples = 1069\nvalue = [1004, 3640]"] ;
16 -> 24 ;
25 [label="ever_married_Yes <= 0.5\ngini = 0.229\nsamples = 228\nvalue = [204, 1344]"] ;
24 -> 25 ;
26 [label="gini = 0.082\nsamples = 21\nvalue = [15, 336]"] ;
25 -> 26 ;
27 [label="gini = 0.266\nsamples = 207\nvalue = [189, 1008]"] ;
25 -> 27 ;
28 [label="gender_Female <= 0.5\ngini = 0.383\nsamples = 841\nvalue = [800, 2296]"] ;
24 -> 28 ;
29 [label="gini = 0.321\nsamples = 301\nvalue = [281, 1120]"] ;
28 -> 29 ;
30 [label="gini = 0.425\nsamples = 540\nvalue = [519, 1176]"] ;
28 -> 30 ;
}