digraph Tree {
node [shape=box] ;
0 [label="age_buckets_5.[75,84) <= 0.5\ngini = 0.5\nsamples = 39060\nvalue = [38352, 39648]"] ;
1 [label="age_buckets_4.[65,74) <= 0.5\ngini = 0.473\nsamples = 35339\nvalue = [34950, 21784]"] ;
0 -> 1 [labeldistance=2.5, labelangle=45, headlabel="True"] ;
2 [label="age_buckets_3.[54,65) <= 0.5\ngini = 0.41\nsamples = 31744\nvalue = [31517, 12712]"] ;
1 -> 2 ;
3 [label="age_buckets_2.[45,54) <= 0.5\ngini = 0.282\nsamples = 25549\nvalue = [25456, 5208]"] ;
2 -> 3 ;
4 [label="gini = 0.147\nsamples = 19965\nvalue = [19934, 1736]"] ;
3 -> 4 ;
5 [label="gini = 0.474\nsamples = 5584\nvalue = [5522, 3472]"] ;
3 -> 5 ;
6 [label="heart_disease_0 <= 0.5\ngini = 0.494\nsamples = 6195\nvalue = [6061, 7504]"] ;
2 -> 6 ;
7 [label="gini = 0.339\nsamples = 427\nvalue = [401, 1456]"] ;
6 -> 7 ;
8 [label="gini = 0.499\nsamples = 5768\nvalue = [5660, 6048]"] ;
6 -> 8 ;
9 [label="heart_disease_1 <= 0.5\ngini = 0.398\nsamples = 3595\nvalue = [3433, 9072]"] ;
1 -> 9 ;
10 [label="glucose_bucket_3.[200,) <= 0.5\ngini = 0.431\nsamples = 3101\nvalue = [2985, 6496]"] ;
9 -> 10 ;
11 [label="gini = 0.452\nsamples = 2627\nvalue = [2541, 4816]"] ;
10 -> 11 ;
12 [label="gini = 0.331\nsamples = 474\nvalue = [444, 1680]"] ;
10 -> 12 ;
13 [label="glucose_bucket_3.[200,) <= 0.5\ngini = 0.252\nsamples = 494\nvalue = [448, 2576]"] ;
9 -> 13 ;
14 [label="gini = 0.289\nsamples = 361\nvalue = [333, 1568]"] ;
13 -> 14 ;
15 [label="gini = 0.184\nsamples = 133\nvalue = [115, 1008]"] ;
13 -> 15 ;
16 [label="heart_disease_0 <= 0.5\ngini = 0.269\nsamples = 3721\nvalue = [3402, 17864]"] ;
0 -> 16 [labeldistance=2.5, labelangle=-45, headlabel="False"] ;
17 [label="glucose_bucket_1.[80,100) <= 0.5\ngini = 0.203\nsamples = 700\nvalue = [615, 4760]"] ;
16 -> 17 ;
18 [label="smoking_status_formerly smoked <= 0.5\ngini = 0.182\nsamples = 541\nvalue = [467, 4144]"] ;
17 -> 18 ;
19 [label="gini = 0.165\nsamples = 355\nvalue = [301, 3024]"] ;
18 -> 19 ;
20 [label="gini = 0.225\nsamples = 186\nvalue = [166, 1120]"] ;
18 -> 20 ;
21 [label="smoking_status_smokes <= 0.5\ngini = 0.312\nsamples = 159\nvalue = [148, 616]"] ;
17 -> 21 ;
22 [label="gini = 0.279\nsamples = 135\nvalue = [124, 616]"] ;
21 -> 22 ;
23 [label="gini = 0.0\nsamples = 24\nvalue = [24, 0]"] ;
21 -> 23 ;
24 [label="smoking_status_never smoked <= 0.5\ngini = 0.289\nsamples = 3021\nvalue = [2787, 13104]"] ;
16 -> 24 ;
25 [label="bmi_bucket_4.[29.9,) <= 0.5\ngini = 0.314\nsamples = 1807\nvalue = [1683, 6944]"] ;
24 -> 25 ;
26 [label="gini = 0.348\nsamples = 1116\nvalue = [1051, 3640]"] ;
25 -> 26 ;
27 [label="gini = 0.27\nsamples = 691\nvalue = [632, 3304]"] ;
25 -> 27 ;
28 [label="work_type_Private <= 0.5\ngini = 0.258\nsamples = 1214\nvalue = [1104, 6160]"] ;
24 -> 28 ;
29 [label="gini = 0.302\nsamples = 617\nvalue = [572, 2520]"] ;
28 -> 29 ;
30 [label="gini = 0.223\nsamples = 597\nvalue = [532, 3640]"] ;
28 -> 30 ;
}