digraph Tree {
node [shape=box] ;
0 [label="age_buckets_5.[75,84) <= 0.5\ngini = 0.5\nsamples = 39060\nvalue = [38352, 39648]"] ;
1 [label="age_buckets_4.[65,74) <= 0.5\ngini = 0.473\nsamples = 35318\nvalue = [34928, 21840]"] ;
0 -> 1 [labeldistance=2.5, labelangle=45, headlabel="True"] ;
2 [label="age_buckets_3.[54,65) <= 0.5\ngini = 0.414\nsamples = 31677\nvalue = [31445, 12992]"] ;
1 -> 2 ;
3 [label="age_buckets_2.[45,54) <= 0.5\ngini = 0.294\nsamples = 25479\nvalue = [25380, 5544]"] ;
2 -> 3 ;
4 [label="gini = 0.156\nsamples = 19918\nvalue = [19885, 1848]"] ;
3 -> 4 ;
5 [label="gini = 0.481\nsamples = 5561\nvalue = [5495, 3696]"] ;
3 -> 5 ;
6 [label="heart_disease_0 <= 0.5\ngini = 0.495\nsamples = 6198\nvalue = [6065, 7448]"] ;
2 -> 6 ;
7 [label="gini = 0.317\nsamples = 414\nvalue = [386, 1568]"] ;
6 -> 7 ;
8 [label="gini = 0.5\nsamples = 5784\nvalue = [5679, 5880]"] ;
6 -> 8 ;
9 [label="heart_disease_0 <= 0.5\ngini = 0.405\nsamples = 3641\nvalue = [3483, 8848]"] ;
1 -> 9 ;
10 [label="smoking_status_smokes <= 0.5\ngini = 0.261\nsamples = 494\nvalue = [450, 2464]"] ;
9 -> 10 ;
11 [label="gini = 0.304\nsamples = 389\nvalue = [361, 1568]"] ;
10 -> 11 ;
12 [label="gini = 0.164\nsamples = 105\nvalue = [89, 896]"] ;
10 -> 12 ;
13 [label="bmi_bucket_2.[18.5,24.9) <= 0.5\ngini = 0.437\nsamples = 3147\nvalue = [3033, 6384]"] ;
9 -> 13 ;
14 [label="gini = 0.423\nsamples = 2671\nvalue = [2566, 5880]"] ;
13 -> 14 ;
15 [label="gini = 0.499\nsamples = 476\nvalue = [467, 504]"] ;
13 -> 15 ;
16 [label="heart_disease_1 <= 0.5\ngini = 0.271\nsamples = 3742\nvalue = [3424, 17808]"] ;
0 -> 16 [labeldistance=2.5, labelangle=-45, headlabel="False"] ;
17 [label="hypertension_1 <= 0.5\ngini = 0.288\nsamples = 3043\nvalue = [2806, 13272]"] ;
16 -> 17 ;
18 [label="bmi_bucket_4.[29.9,) <= 0.5\ngini = 0.303\nsamples = 2388\nvalue = [2215, 9688]"] ;
17 -> 18 ;
19 [label="gini = 0.336\nsamples = 1507\nvalue = [1414, 5208]"] ;
18 -> 19 ;
20 [label="gini = 0.257\nsamples = 881\nvalue = [801, 4480]"] ;
18 -> 20 ;
21 [label="bmi_bucket_4.[29.9,) <= 0.5\ngini = 0.243\nsamples = 655\nvalue = [591, 3584]"] ;
17 -> 21 ;
22 [label="gini = 0.221\nsamples = 374\nvalue = [333, 2296]"] ;
21 -> 22 ;
23 [label="gini = 0.278\nsamples = 281\nvalue = [258, 1288]"] ;
21 -> 23 ;
24 [label="glucose_bucket_1.[80,100) <= 0.5\ngini = 0.211\nsamples = 699\nvalue = [618, 4536]"] ;
16 -> 24 ;
25 [label="work_type_Govt_job <= 0.5\ngini = 0.193\nsamples = 539\nvalue = [470, 3864]"] ;
24 -> 25 ;
26 [label="gini = 0.188\nsamples = 492\nvalue = [427, 3640]"] ;
25 -> 26 ;
27 [label="gini = 0.27\nsamples = 47\nvalue = [43, 224]"] ;
25 -> 27 ;
28 [label="smoking_status_smokes <= 0.5\ngini = 0.296\nsamples = 160\nvalue = [148, 672]"] ;
24 -> 28 ;
29 [label="gini = 0.262\nsamples = 135\nvalue = [123, 672]"] ;
28 -> 29 ;
30 [label="gini = 0.0\nsamples = 25\nvalue = [25, 0]"] ;
28 -> 30 ;
}